FANN_FLO_2.1
num_layers=3
learning_rate=0.700000
connection_rate=1.000000
network_type=0
learning_momentum=0.000000
training_algorithm=2
train_error_function=1
train_stop_function=0
cascade_output_change_fraction=0.010000
quickprop_decay=-0.000100
quickprop_mu=1.750000
rprop_increase_factor=1.200000
rprop_decrease_factor=0.500000
rprop_delta_min=0.000000
rprop_delta_max=50.000000
rprop_delta_zero=0.100000
cascade_output_stagnation_epochs=12
cascade_candidate_change_fraction=0.010000
cascade_candidate_stagnation_epochs=12
cascade_max_out_epochs=150
cascade_min_out_epochs=50
cascade_max_cand_epochs=150
cascade_min_cand_epochs=50
cascade_num_candidate_groups=2
bit_fail_limit=3.49999994039535522461e-01
cascade_candidate_limit=1.00000000000000000000e+03
cascade_weight_multiplier=4.00000005960464477539e-01
cascade_activation_functions_count=10
cascade_activation_functions=3 5 7 8 10 11 14 15 16 17 
cascade_activation_steepnesses_count=4
cascade_activation_steepnesses=2.50000000000000000000e-01 5.00000000000000000000e-01 7.50000000000000000000e-01 1.00000000000000000000e+00 
layer_sizes=17 13 4 
scale_included=0
neurons (num_inputs, activation_function, activation_steepness)=(0, 0, 0.00000000000000000000e+00) (0, 0, 0.00000000000000000000e+00) (0, 0, 0.00000000000000000000e+00) (0, 0, 0.00000000000000000000e+00) (0, 0, 0.00000000000000000000e+00) (0, 0, 0.00000000000000000000e+00) (0, 0, 0.00000000000000000000e+00) (0, 0, 0.00000000000000000000e+00) (0, 0, 0.00000000000000000000e+00) (0, 0, 0.00000000000000000000e+00) (0, 0, 0.00000000000000000000e+00) (0, 0, 0.00000000000000000000e+00) (0, 0, 0.00000000000000000000e+00) (0, 0, 0.00000000000000000000e+00) (0, 0, 0.00000000000000000000e+00) (0, 0, 0.00000000000000000000e+00) (0, 0, 0.00000000000000000000e+00) (17, 5, 1.00000000000000000000e+00) (17, 5, 1.00000000000000000000e+00) (17, 5, 1.00000000000000000000e+00) (17, 5, 1.00000000000000000000e+00) (17, 5, 1.00000000000000000000e+00) (17, 5, 1.00000000000000000000e+00) (17, 5, 1.00000000000000000000e+00) (17, 5, 1.00000000000000000000e+00) (17, 5, 1.00000000000000000000e+00) (17, 5, 1.00000000000000000000e+00) (17, 5, 1.00000000000000000000e+00) (17, 5, 1.00000000000000000000e+00) (0, 5, 1.00000000000000000000e+00) (13, 5, 1.00000000000000000000e+00) (13, 5, 1.00000000000000000000e+00) (13, 5, 1.00000000000000000000e+00) (0, 5, 1.00000000000000000000e+00) 
connections (connected_to_neuron, weight)=(0, -2.52842664718627929688e+00) (1, -5.34871625900268554688e+00) (2, 1.62196838855743408203e+00) (3, 9.18716415762901306152e-02) (4, -2.54730224609375000000e+00) (5, -1.52673730850219726562e+01) (6, 1.50763273239135742188e+01) (7, 7.51733720302581787109e-01) (8, 1.21224200725555419922e+00) (9, 4.10503625869750976562e+00) (10, -6.01812064647674560547e-01) (11, -1.24843664467334747314e-01) (12, -2.02145195007324218750e+00) (13, -3.09791356325149536133e-01) (14, -4.53330963850021362305e-01) (15, -6.48352086544036865234e-01) (16, -1.65803581476211547852e-02) (0, 3.57944464683532714844e+00) (1, 3.08001804351806640625e+00) (2, 5.60404109954833984375e+00) (3, 3.84271955490112304688e+00) (4, 1.83629214763641357422e+00) (5, 1.01401269435882568359e-01) (6, 1.13078266382217407227e-01) (7, -1.69809445738792419434e-01) (8, 7.08484113216400146484e-01) (9, 5.11107063293457031250e+00) (10, 9.75816965103149414062e-01) (11, -2.79695075005292892456e-02) (12, -3.11771631240844726562e-02) (13, 1.01068168878555297852e-02) (14, 6.04231171309947967529e-02) (15, 1.27047732472419738770e-01) (16, 2.53969907760620117188e-01) (0, -5.43277338147163391113e-02) (1, -2.45899975299835205078e-01) (2, 3.82018163800239562988e-02) (3, 3.54160755872726440430e-01) (4, 7.67974704504013061523e-02) (5, 5.70317625999450683594e-01) (6, 2.93271422386169433594e-01) (7, 2.86097496747970581055e-01) (8, 6.30065500736236572266e-02) (9, -2.00586467981338500977e-01) (10, 2.07284331321716308594e-01) (11, 3.73965382575988769531e-01) (12, 2.88061887025833129883e-01) (13, 3.53864759206771850586e-01) (14, -2.30890798568725585938e+00) (15, 1.27893239259719848633e-01) (16, 2.77640283107757568359e-01) (0, -2.86457687616348266602e-01) (1, 2.53789854049682617188e+00) (2, -5.95364212989807128906e-01) (3, 6.58132210373878479004e-02) (4, -1.41845977306365966797e+00) (5, 2.76032507419586181641e-01) (6, 5.28678223490715026855e-02) (7, 2.19364538788795471191e-01) (8, -4.53542284667491912842e-02) (9, 9.73920702934265136719e-01) (10, -2.74525992572307586670e-02) (11, -8.15153479576110839844e-01) (12, -1.19713556766510009766e+00) (13, -2.54454404115676879883e-01) (14, 1.01519152522087097168e-01) (15, -3.86807182803750038147e-03) (16, 2.46892437338829040527e-01) (0, 5.31439244747161865234e-01) (1, 3.51403266191482543945e-01) (2, 2.91081368923187255859e-01) (3, 5.78831815719604492188e+00) (4, 1.24267864227294921875e+00) (5, 1.82242500782012939453e+00) (6, 2.40173831582069396973e-01) (7, 2.51980930566787719727e-01) (8, -3.62664788961410522461e-01) (9, -1.93841069936752319336e-01) (10, -9.57394480705261230469e-01) (11, 1.67473495006561279297e-01) (12, 7.67385721206665039062e-01) (13, 4.16579544544219970703e-01) (14, -2.62064576148986816406e+00) (15, 1.04337163269519805908e-01) (16, 3.87750804424285888672e-01) (0, 8.99407640099525451660e-03) (1, 1.07712201774120330811e-01) (2, -1.44132211804389953613e-01) (3, 8.71402561664581298828e-01) (4, 1.11045219004154205322e-01) (5, 7.11400806903839111328e-02) (6, 4.79098521173000335693e-02) (7, -8.74783098697662353516e-01) (8, 1.29972919821739196777e-01) (9, 8.45277607440948486328e-02) (10, 1.33245036005973815918e-01) (11, 3.34022551774978637695e-01) (12, 8.45027342438697814941e-02) (13, 3.49858701229095458984e-01) (14, -4.96414870023727416992e-01) (15, 5.95803037285804748535e-02) (16, 2.74258226156234741211e-01) (0, -2.28122502565383911133e-01) (1, -1.00080764293670654297e+00) (2, 1.50285989046096801758e-01) (3, -1.55258372426033020020e-01) (4, -3.47575873136520385742e-01) (5, -2.22103834152221679688e-01) (6, 2.61016935110092163086e-01) (7, 1.97937354445457458496e-01) (8, 6.46586641669273376465e-02) (9, -1.05539835989475250244e-01) (10, 3.78508090972900390625e-01) (11, -3.73132944107055664062e-01) (12, 3.22683900594711303711e-01) (13, 3.52686345577239990234e-01) (14, -7.92848348617553710938e-01) (15, 2.19772472977638244629e-01) (16, 3.19454103708267211914e-01) (0, 1.36159133911132812500e+00) (1, -1.66877784729003906250e+01) (2, 7.76859104633331298828e-01) (3, -1.11804232001304626465e-01) (4, -3.71964536607265472412e-02) (5, 1.06130862236022949219e+00) (6, -5.87853312492370605469e-01) (7, 1.58354923129081726074e-01) (8, -4.37524914741516113281e-01) (9, 3.28889679908752441406e+00) (10, 1.54264375567436218262e-01) (11, -2.27616950869560241699e-02) (12, 1.55019253492355346680e-01) (13, -6.50730609893798828125e-01) (14, -1.97840064764022827148e-01) (15, -2.31016352772712707520e-01) (16, 4.01086717844009399414e-01) (0, -6.49569988250732421875e-01) (1, 1.22479617595672607422e-01) (2, -3.87207120656967163086e-02) (3, 1.94191202521324157715e-01) (4, -6.67104363441467285156e-01) (5, 2.37600699067115783691e-01) (6, 4.95506823062896728516e-02) (7, 2.92308181524276733398e-01) (8, -6.67964443564414978027e-02) (9, 5.42576983571052551270e-02) (10, -1.82839840650558471680e-01) (11, -1.44939839839935302734e-01) (12, -4.68250393867492675781e-01) (13, -3.05784761905670166016e-01) (14, 1.69798564910888671875e+00) (15, 3.04847329854965209961e-01) (16, 2.03325465321540832520e-01) (0, -1.19788980484008789062e+00) (1, -1.39170318841934204102e-01) (2, 4.88386392593383789062e+00) (3, -2.66038417816162109375e-01) (4, 7.44450017809867858887e-02) (5, -5.57868385314941406250e+00) (6, 2.00429156422615051270e-01) (7, 1.82301595807075500488e-01) (8, 4.56696659326553344727e-01) (9, -2.15422654151916503906e+00) (10, 1.17516803741455078125e+00) (11, 2.31731966137886047363e-01) (12, 6.07019901275634765625e-01) (13, 5.59410929679870605469e-01) (14, 1.57488226890563964844e-01) (15, 2.28364959359169006348e-01) (16, 2.54591435194015502930e-01) (0, -2.89004534482955932617e-01) (1, 2.96674370765686035156e-01) (2, -7.00845122337341308594e-02) (3, -3.83236736059188842773e-01) (4, 7.88833200931549072266e-02) (5, -2.29620888829231262207e-01) (6, 1.91178470849990844727e-01) (7, 1.18579439818859100342e-01) (8, -3.79056245088577270508e-01) (9, -3.28642837703227996826e-02) (10, 2.06415548920631408691e-01) (11, -3.05710196495056152344e-01) (12, 3.19548100233078002930e-01) (13, -5.20123317837715148926e-02) (14, -1.68338871002197265625e+01) (15, 9.32631865143775939941e-02) (16, 2.79237419366836547852e-01) (0, -1.29274621605873107910e-01) (1, -1.01131498813629150391e-01) (2, 7.31776431202888488770e-02) (3, -6.28106474876403808594e-01) (4, 1.74379929900169372559e-01) (5, -1.81046545505523681641e-01) (6, 2.40566015243530273438e-01) (7, 1.93514347076416015625e-01) (8, 1.83791637420654296875e-01) (9, 1.88591722398996353149e-02) (10, 1.66319727897644042969e-01) (11, -1.42191480845212936401e-02) (12, 3.85375879704952239990e-02) (13, 2.73461520671844482422e-01) (14, -4.65246848762035369873e-02) (15, -6.02103443816304206848e-03) (16, 3.29333841800689697266e-01) (17, 7.71968513727188110352e-02) (18, 1.48467794060707092285e-01) (19, -1.68121412396430969238e-01) (20, -3.32352757453918457031e-01) (21, 1.11915118992328643799e-01) (22, 7.20487356185913085938e-01) (23, -4.23516839742660522461e-01) (24, -6.64019644260406494141e-01) (25, 1.50705647468566894531e+00) (26, -2.91088938713073730469e-01) (27, 6.33950471878051757812e-01) (28, 1.51459002494812011719e+00) (29, 3.09086531400680541992e-01) (17, 6.28779172897338867188e-01) (18, -1.06190240383148193359e+00) (19, 2.73218244314193725586e-01) (20, 2.39986762404441833496e-01) (21, 5.53625404834747314453e-01) (22, 1.66690930724143981934e-01) (23, 8.00802335143089294434e-02) (24, 1.23448538780212402344e+00) (25, 2.75896519422531127930e-01) (26, 8.86359572410583496094e-01) (27, -4.81183901429176330566e-02) (28, 1.22285611927509307861e-01) (29, 7.69270002841949462891e-01) (17, 1.45781651139259338379e-01) (18, 3.85397493839263916016e-01) (19, 1.73348653316497802734e+00) (20, 3.85269254446029663086e-01) (21, 2.77769833803176879883e-01) (22, 1.93686747550964355469e+00) (23, 1.13065874576568603516e+00) (24, 2.94311225414276123047e-01) (25, -1.32657006382942199707e-01) (26, 8.93564462661743164062e-01) (27, 2.23435735702514648438e+00) (28, 2.67775416374206542969e+00) (29, 2.68391370773315429688e-01) 
